digraph Tree {
node [shape=box, style="filled, rounded", color="black", fontname="helvetica"] ;
edge [fontname="helvetica"] ;
0 [label="petal width (cm) <= 0.75\ngini = 0.66\nsamples = 99\nvalue = [58, 47, 45]\nclass = setosa", fillcolor="#fcf2ea"] ;
1 [label="gini = 0.0\nsamples = 37\nvalue = [58, 0, 0]\nclass = setosa", fillcolor="#e58139"] ;
0 -> 1 [labeldistance=2.5, labelangle=45, headlabel="True"] ;
2 [label="petal length (cm) <= 4.85\ngini = 0.5\nsamples = 62\nvalue = [0, 47, 45]\nclass = versicolor", fillcolor="#f7fefa"] ;
0 -> 2 [labeldistance=2.5, labelangle=-45, headlabel="False"] ;
3 [label="gini = 0.0\nsamples = 30\nvalue = [0, 46, 0]\nclass = versicolor", fillcolor="#39e581"] ;
2 -> 3 ;
4 [label="sepal width (cm) <= 2.55\ngini = 0.04\nsamples = 32\nvalue = [0, 1, 45]\nclass = virginica", fillcolor="#843de6"] ;
2 -> 4 ;
5 [label="petal length (cm) <= 4.95\ngini = 0.32\nsamples = 4\nvalue = [0, 1, 4]\nclass = virginica", fillcolor="#a06aec"] ;
4 -> 5 ;
6 [label="gini = 0.0\nsamples = 1\nvalue = [0, 1, 0]\nclass = versicolor", fillcolor="#39e581"] ;
5 -> 6 ;
7 [label="gini = 0.0\nsamples = 3\nvalue = [0, 0, 4]\nclass = virginica", fillcolor="#8139e5"] ;
5 -> 7 ;
8 [label="gini = 0.0\nsamples = 28\nvalue = [0, 0, 41]\nclass = virginica", fillcolor="#8139e5"] ;
4 -> 8 ;
}